digraph Tree {
node [shape=box, style="filled, rounded", color="black", fontname="helvetica"] ;
edge [fontname="helvetica"] ;
0 [label="am+1 <= 0.14\ngini = 0.11\nsamples = 19998\nvalue = [29814, 1855]", fillcolor="#e78945"] ;
1 [label="co-2 <= 0.46\ngini = 0.02\nsamples = 18999\nvalue = [29813, 307]", fillcolor="#e5823b"] ;
0 -> 1 [labeldistance=2.5, labelangle=45, headlabel="True"] ;
2 [label="do+3 <= 0.2\ngini = 0.02\nsamples = 18856\nvalue = [29664, 231]", fillcolor="#e5823b"] ;
1 -> 2 ;
3 [label="co-3 <= 0.27\ngini = 0.41\nsamples = 24\nvalue = [12, 30]", fillcolor="#88c4ef"] ;
2 -> 3 ;
4 [label="gini = 0.0\nsamples = 7\nvalue = [12, 0]", fillcolor="#e58139"] ;
3 -> 4 ;
5 [label="gini = 0.0\nsamples = 17\nvalue = [0, 30]", fillcolor="#399de5"] ;
3 -> 5 ;
6 [label="am-2 <= 0.14\ngini = 0.01\nsamples = 18832\nvalue = [29652, 201]", fillcolor="#e5823a"] ;
2 -> 6 ;
7 [label="am-3 <= 0.14\ngini = 0.01\nsamples = 18823\nvalue = [29648, 190]", fillcolor="#e5823a"] ;
6 -> 7 ;
8 [label="co+3 <= 0.44\ngini = 0.01\nsamples = 18818\nvalue = [29648, 179]", fillcolor="#e5823a"] ;
7 -> 8 ;
9 [label="do-2 <= 0.2\ngini = 0.01\nsamples = 18640\nvalue = [29413, 143]", fillcolor="#e5823a"] ;
8 -> 9 ;
10 [label="wt+1 <= 0.72\ngini = 0.44\nsamples = 8\nvalue = [3, 6]", fillcolor="#9ccef2"] ;
9 -> 10 ;
11 [label="gini = 0.0\nsamples = 3\nvalue = [3, 0]", fillcolor="#e58139"] ;
10 -> 11 ;
12 [label="gini = 0.0\nsamples = 5\nvalue = [0, 6]", fillcolor="#399de5"] ;
10 -> 12 ;
13 [label="am+4 <= 0.14\ngini = 0.01\nsamples = 18632\nvalue = [29410, 137]", fillcolor="#e5823a"] ;
9 -> 13 ;
14 [label="do-4 <= 0.21\ngini = 0.01\nsamples = 18629\nvalue = [29410, 133]", fillcolor="#e5823a"] ;
13 -> 14 ;
15 [label="wt+1 <= 0.75\ngini = 0.4\nsamples = 12\nvalue = [16, 6]", fillcolor="#efb083"] ;
14 -> 15 ;
16 [label="gini = 0.0\nsamples = 9\nvalue = [16, 0]", fillcolor="#e58139"] ;
15 -> 16 ;
17 [label="gini = 0.0\nsamples = 3\nvalue = [0, 6]", fillcolor="#399de5"] ;
15 -> 17 ;
18 [label="wt-4 <= 0.18\ngini = 0.01\nsamples = 18617\nvalue = [29394, 127]", fillcolor="#e5823a"] ;
14 -> 18 ;
19 [label="do-1 <= 0.55\ngini = 0.07\nsamples = 1137\nvalue = [1734, 67]", fillcolor="#e68641"] ;
18 -> 19 ;
20 [label="gini = 0.0\nsamples = 42\nvalue = [0, 67]", fillcolor="#399de5"] ;
19 -> 20 ;
21 [label="gini = 0.0\nsamples = 1095\nvalue = [1734, 0]", fillcolor="#e58139"] ;
19 -> 21 ;
22 [label="do+3 <= 0.23\ngini = 0.0\nsamples = 17480\nvalue = [27660, 60]", fillcolor="#e58139"] ;
18 -> 22 ;
23 [label="do-1 <= 0.25\ngini = 0.17\nsamples = 87\nvalue = [119, 12]", fillcolor="#e88e4d"] ;
22 -> 23 ;
24 [label="wt+3 <= 0.8\ngini = 0.1\nsamples = 85\nvalue = [119, 7]", fillcolor="#e78845"] ;
23 -> 24 ;
25 [label="gini = 0.0\nsamples = 79\nvalue = [119, 0]", fillcolor="#e58139"] ;
24 -> 25 ;
26 [label="gini = 0.0\nsamples = 6\nvalue = [0, 7]", fillcolor="#399de5"] ;
24 -> 26 ;
27 [label="gini = 0.0\nsamples = 2\nvalue = [0, 5]", fillcolor="#399de5"] ;
23 -> 27 ;
28 [label="wt+4 <= 0.18\ngini = 0.0\nsamples = 17393\nvalue = [27541, 48]", fillcolor="#e58139"] ;
22 -> 28 ;
29 [label="do+4 <= 0.57\ngini = 0.33\nsamples = 11\nvalue = [15, 4]", fillcolor="#eca36e"] ;
28 -> 29 ;
30 [label="gini = 0.0\nsamples = 3\nvalue = [0, 4]", fillcolor="#399de5"] ;
29 -> 30 ;
31 [label="gini = 0.0\nsamples = 8\nvalue = [15, 0]", fillcolor="#e58139"] ;
29 -> 31 ;
32 [label="co-2 <= 0.36\ngini = 0.0\nsamples = 17382\nvalue = [27526, 44]", fillcolor="#e58139"] ;
28 -> 32 ;
33 [label="do+4 <= 0.23\ngini = 0.0\nsamples = 16210\nvalue = [25712, 3]", fillcolor="#e58139"] ;
32 -> 33 ;
34 [label="do-1 <= 0.26\ngini = 0.32\nsamples = 5\nvalue = [4, 1]", fillcolor="#eca06a"] ;
33 -> 34 ;
35 [label="gini = 0.0\nsamples = 4\nvalue = [4, 0]", fillcolor="#e58139"] ;
34 -> 35 ;
36 [label="gini = 0.0\nsamples = 1\nvalue = [0, 1]", fillcolor="#399de5"] ;
34 -> 36 ;
37 [label="do-2 <= 0.26\ngini = 0.0\nsamples = 16205\nvalue = [25708, 2]", fillcolor="#e58139"] ;
33 -> 37 ;
38 [label="tu+4 <= 0.04\ngini = 0.02\nsamples = 123\nvalue = [179, 2]", fillcolor="#e5823b"] ;
37 -> 38 ;
39 [label="gini = 0.0\nsamples = 121\nvalue = [179, 0]", fillcolor="#e58139"] ;
38 -> 39 ;
40 [label="gini = 0.0\nsamples = 2\nvalue = [0, 2]", fillcolor="#399de5"] ;
38 -> 40 ;
41 [label="gini = 0.0\nsamples = 16082\nvalue = [25529, 0]", fillcolor="#e58139"] ;
37 -> 41 ;
42 [label="am+3 <= 0.1\ngini = 0.04\nsamples = 1172\nvalue = [1814, 41]", fillcolor="#e6843d"] ;
32 -> 42 ;
43 [label="co-1 <= 0.36\ngini = 0.3\nsamples = 30\nvalue = [36, 8]", fillcolor="#eb9d65"] ;
42 -> 43 ;
44 [label="tu+4 <= 0.04\ngini = 0.47\nsamples = 8\nvalue = [5, 8]", fillcolor="#b5daf5"] ;
43 -> 44 ;
45 [label="gini = 0.0\nsamples = 3\nvalue = [5, 0]", fillcolor="#e58139"] ;
44 -> 45 ;
46 [label="gini = 0.0\nsamples = 5\nvalue = [0, 8]", fillcolor="#399de5"] ;
44 -> 46 ;
47 [label="gini = 0.0\nsamples = 22\nvalue = [31, 0]", fillcolor="#e58139"] ;
43 -> 47 ;
48 [label="tu-3 <= 0.04\ngini = 0.04\nsamples = 1142\nvalue = [1778, 33]", fillcolor="#e5833d"] ;
42 -> 48 ;
49 [label="wt-3 <= 0.27\ngini = 0.01\nsamples = 713\nvalue = [1128, 5]", fillcolor="#e5823a"] ;
48 -> 49 ;
50 [label="gini = 0.0\nsamples = 3\nvalue = [0, 4]", fillcolor="#399de5"] ;
49 -> 50 ;
51 [label="am+1 <= 0.13\ngini = 0.0\nsamples = 710\nvalue = [1128, 1]", fillcolor="#e58139"] ;
49 -> 51 ;
52 [label="gini = 0.0\nsamples = 619\nvalue = [981, 0]", fillcolor="#e58139"] ;
51 -> 52 ;
53 [label="tu-3 <= 0.03\ngini = 0.01\nsamples = 91\nvalue = [147, 1]", fillcolor="#e5823a"] ;
51 -> 53 ;
54 [label="gini = 0.0\nsamples = 90\nvalue = [147, 0]", fillcolor="#e58139"] ;
53 -> 54 ;
55 [label="gini = 0.0\nsamples = 1\nvalue = [0, 1]", fillcolor="#399de5"] ;
53 -> 55 ;
56 [label="tu-4 <= 0.04\ngini = 0.08\nsamples = 429\nvalue = [650, 28]", fillcolor="#e68642"] ;
48 -> 56 ;
57 [label="ph+1 <= 0.79\ngini = 0.21\nsamples = 150\nvalue = [203, 28]", fillcolor="#e99254"] ;
56 -> 57 ;
58 [label="wt+2 <= 0.31\ngini = 0.12\nsamples = 100\nvalue = [142, 10]", fillcolor="#e78a47"] ;
57 -> 58 ;
59 [label="gini = 0.0\nsamples = 93\nvalue = [142, 0]", fillcolor="#e58139"] ;
58 -> 59 ;
60 [label="gini = 0.0\nsamples = 7\nvalue = [0, 10]", fillcolor="#399de5"] ;
58 -> 60 ;
61 [label="am-4 <= 0.11\ngini = 0.35\nsamples = 50\nvalue = [61, 18]", fillcolor="#eda673"] ;
57 -> 61 ;
62 [label="wt-2 <= 0.3\ngini = 0.5\nsamples = 21\nvalue = [15, 18]", fillcolor="#deeffb"] ;
61 -> 62 ;
63 [label="gini = 0.0\nsamples = 9\nvalue = [15, 0]", fillcolor="#e58139"] ;
62 -> 63 ;
64 [label="gini = 0.0\nsamples = 12\nvalue = [0, 18]", fillcolor="#399de5"] ;
62 -> 64 ;
65 [label="gini = 0.0\nsamples = 29\nvalue = [46, 0]", fillcolor="#e58139"] ;
61 -> 65 ;
66 [label="gini = 0.0\nsamples = 279\nvalue = [447, 0]", fillcolor="#e58139"] ;
56 -> 66 ;
67 [label="gini = 0.0\nsamples = 3\nvalue = [0, 4]", fillcolor="#399de5"] ;
13 -> 67 ;
68 [label="wt-3 <= 0.26\ngini = 0.23\nsamples = 178\nvalue = [235, 36]", fillcolor="#e99457"] ;
8 -> 68 ;
69 [label="gini = 0.0\nsamples = 20\nvalue = [0, 30]", fillcolor="#399de5"] ;
68 -> 69 ;
70 [label="tu+3 <= 0.03\ngini = 0.05\nsamples = 158\nvalue = [235, 6]", fillcolor="#e6843e"] ;
68 -> 70 ;
71 [label="gini = 0.0\nsamples = 133\nvalue = [207, 0]", fillcolor="#e58139"] ;
70 -> 71 ;
72 [label="tu+1 <= 0.04\ngini = 0.29\nsamples = 25\nvalue = [28, 6]", fillcolor="#eb9c63"] ;
70 -> 72 ;
73 [label="gini = 0.0\nsamples = 4\nvalue = [0, 6]", fillcolor="#399de5"] ;
72 -> 73 ;
74 [label="gini = 0.0\nsamples = 21\nvalue = [28, 0]", fillcolor="#e58139"] ;
72 -> 74 ;
75 [label="gini = 0.0\nsamples = 5\nvalue = [0, 11]", fillcolor="#399de5"] ;
7 -> 75 ;
76 [label="am-4 <= 0.14\ngini = 0.39\nsamples = 9\nvalue = [4, 11]", fillcolor="#81c1ee"] ;
6 -> 76 ;
77 [label="gini = 0.0\nsamples = 2\nvalue = [4, 0]", fillcolor="#e58139"] ;
76 -> 77 ;
78 [label="gini = 0.0\nsamples = 7\nvalue = [0, 11]", fillcolor="#399de5"] ;
76 -> 78 ;
79 [label="ph-1 <= 0.68\ngini = 0.45\nsamples = 143\nvalue = [149, 76]", fillcolor="#f2c19e"] ;
1 -> 79 ;
80 [label="gini = 0.0\nsamples = 95\nvalue = [149, 0]", fillcolor="#e58139"] ;
79 -> 80 ;
81 [label="gini = 0.0\nsamples = 48\nvalue = [0, 76]", fillcolor="#399de5"] ;
79 -> 81 ;
82 [label="am-4 <= 0.13\ngini = 0.0\nsamples = 999\nvalue = [1, 1548]", fillcolor="#399de5"] ;
0 -> 82 [labeldistance=2.5, labelangle=-45, headlabel="False"] ;
83 [label="tu+1 <= 0.04\ngini = 0.28\nsamples = 5\nvalue = [1, 5]", fillcolor="#61b1ea"] ;
82 -> 83 ;
84 [label="gini = 0.0\nsamples = 4\nvalue = [0, 5]", fillcolor="#399de5"] ;
83 -> 84 ;
85 [label="gini = 0.0\nsamples = 1\nvalue = [1, 0]", fillcolor="#e58139"] ;
83 -> 85 ;
86 [label="gini = 0.0\nsamples = 994\nvalue = [0, 1543]", fillcolor="#399de5"] ;
82 -> 86 ;
}